network unknown {
}
variable HighLactate {
    type discrete [ 2 ] { 0, 1 };
    property weight = None ;
}
variable HighMAP {
    type discrete [ 2 ] { 0, 1 };
    property weight = None ;
}
variable HighVIS {
    type discrete [ 2 ] { 0, 1 };
    property weight = None ;
}
variable LowMAP {
    type discrete [ 2 ] { 0, 1 };
    property weight = None ;
}
variable LowPH {
    type discrete [ 2 ] { 0, 1 };
    property weight = None ;
}
variable LowPlatelet {
    type discrete [ 2 ] { 0, 1 };
    property weight = None ;
}
variable NeurologicalInjury {
    type discrete [ 2 ] { 0, 1 };
    property weight = None ;
}
variable RelativePCO2 {
    type discrete [ 2 ] { 0, 1 };
    property weight = None ;
}
probability ( HighLactate | LowMAP ) {
    ( 0 ) 0.5, 0.5;
    ( 1 ) 0.15789473684210525, 0.8421052631578947;

}
probability ( HighMAP ) {
    table 0.9452054794520548, 0.0547945205479452 ;
}
probability ( HighVIS ) {
    table 0.7808219178082192, 0.2191780821917808 ;
}
probability ( LowMAP | HighVIS ) {
    ( 0 ) 0.8448275862068966, 0.15517241379310345;
    ( 1 ) 0.4117647058823529, 0.5882352941176471;

}
probability ( LowPH | RelativePCO2 ) {
    ( 0 ) 0.9423076923076923, 0.057692307692307696;
    ( 1 ) 0.7391304347826086, 0.2608695652173913;

}
probability ( LowPlatelet | HighLactate ) {
    ( 0 ) 0.8064516129032258, 0.1935483870967742;
    ( 1 ) 0.5681818181818182, 0.4318181818181818;

}
probability ( NeurologicalInjury | LowMAP, HighLactate, LowPH, RelativePCO2 ) {
    ( 0, 0, 0, 0 ) 0.6923076923076923, 0.3076923076923077;
    ( 0, 0, 0, 1 ) 0.8695652173913043, 0.13043478260869565;
    ( 0, 0, 1, 0 ) 0.6923076923076923, 0.3076923076923077;
    ( 0, 0, 1, 1 ) 0.8695652173913043, 0.13043478260869565;
    ( 0, 1, 0, 0 ) 0.6923076923076923, 0.3076923076923077;
    ( 0, 1, 0, 1 ) 0.8695652173913043, 0.13043478260869565;
    ( 0, 1, 1, 0 ) 0.6923076923076923, 0.3076923076923077;
    ( 0, 1, 1, 1 ) 0.8695652173913043, 0.13043478260869565;
    ( 1, 0, 0, 0 ) 0.6923076923076923, 0.3076923076923077;
    ( 1, 0, 0, 1 ) 0.8695652173913043, 0.13043478260869565;
    ( 1, 0, 1, 0 ) 0.6923076923076923, 0.3076923076923077;
    ( 1, 0, 1, 1 ) 0.8695652173913043, 0.13043478260869565;
    ( 1, 1, 0, 0 ) 0.6923076923076923, 0.3076923076923077;
    ( 1, 1, 0, 1 ) 0.8695652173913043, 0.13043478260869565;
    ( 1, 1, 1, 0 ) 0.6923076923076923, 0.3076923076923077;
    ( 1, 1, 1, 1 ) 0.8695652173913043, 0.13043478260869565;

}
probability ( RelativePCO2 ) {
    table 0.6986301369863014, 0.3013698630136986 ;
}
