network unknown {
}
variable HighLactate {
    type discrete [ 2 ] { 0, 1 };
    property weight = None ;
}
variable HighMAP {
    type discrete [ 2 ] { 0, 1 };
    property weight = None ;
}
variable HighVIS {
    type discrete [ 2 ] { 0, 1 };
    property weight = None ;
}
variable LowMAP {
    type discrete [ 2 ] { 0, 1 };
    property weight = None ;
}
variable LowPH {
    type discrete [ 2 ] { 0, 1 };
    property weight = None ;
}
variable LowPlatelet {
    type discrete [ 2 ] { 0, 1 };
    property weight = None ;
}
variable NeurologicalInjury {
    type discrete [ 2 ] { 0, 1 };
    property weight = None ;
}
variable RelativePCO2 {
    type discrete [ 2 ] { 0, 1 };
    property weight = None ;
}
probability ( HighLactate | LowMAP ) {
    ( 0 ) 0.48214285714285715, 0.5178571428571429;
    ( 1 ) 0.15789473684210525, 0.8421052631578947;

}
probability ( HighMAP ) {
    table 0.9315068493150684, 0.0684931506849315 ;
}
probability ( HighVIS ) {
    table 0.7808219178082192, 0.2191780821917808 ;
}
probability ( LowMAP | HighVIS ) {
    ( 0 ) 0.8448275862068966, 0.15517241379310345;
    ( 1 ) 0.4117647058823529, 0.5882352941176471;

}
probability ( LowPH ) {
    table 0.8904109589041096, 0.1095890410958904 ;
}
probability ( LowPlatelet ) {
    table 0.9863013698630136, 0.0136986301369863 ;
}
probability ( NeurologicalInjury ) {
    table 0.7534246575342466, 0.2465753424657534 ;
}
probability ( RelativePCO2 ) {
    table 0.6986301369863014, 0.3013698630136986 ;
}
